10 50
9 0.0093658995 -0.010067244 -0.00015846957 -0.0007506118 -0.0032812713 0.0052782176 0.0040076175 -0.00059659913 0.0030774486 -0.0058936966 0.0029845461 0.008339446 0.0021113846 -0.0044470117 0.0073430096 0.0056203706 -0.006424207 -0.0035972213 0.0027625128 0.0020665224 -0.0027781804 -0.00848023 -0.0036457519 -0.002866612 -0.0012127595 -0.0021108813 0.003514332 0.0038990835 0.0027213264 0.004473529 -0.0012780052 0.0036219927 0.007698427 -0.00424043 0.008663733 4.0259736e-05 -0.005087678 0.008276123 -0.0066616572 0.00880933 0.008859646 0.0058507593 0.0022536337 0.0026651325 -0.008751663 0.0066940556 0.00695099 0.004455895 -0.0024293254 0.00715684
1 -0.0058671082 0.007983332 0.0005887864 -0.00018378471 -0.009380117 -0.009103477 -0.009811469 -0.002910515 0.005679771 -0.0035538985 0.0015339929 0.0026906063 0.008351314 -0.010143764 0.00981297 0.0039251815 -0.0039747003 -0.005484888 -0.008233724 -0.007674376 0.002264478 0.0033408862 0.00039178616 -0.0023653142 0.0032336467 -0.0070639714 0.0068760137 -0.006328525 -0.0030875755 0.0007054096 -0.008316487 0.0035429592 -0.00490296 0.0007516839 -0.007875523 -0.0020475022 0.005859138 -0.003749504 -0.0050122826 0.006116884 0.0030334229 -0.0016976398 0.005143375 -0.0061289542 -0.009851451 -0.009394363 -0.0006911373 0.007678797 -0.00631283 0.0034481802
8 0.00056710636 0.0062136133 0.008280975 -0.007433539 0.00081636646 -0.004251966 -0.0019725456 0.004577748 0.009592773 -0.0016023887 0.0029161957 -0.0036913648 0.0009972664 -0.007251104 0.0057049515 0.009805993 -0.005237288 0.004940336 0.0053124293 0.0020225074 -0.0048845964 -0.008825199 -0.0075738267 -0.009794976 -0.006184188 0.0059678457 -0.0060608424 0.009203406 0.0019660802 0.005055895 -0.009418087 0.008468062 -0.0023037095 0.0059647067 -0.009290349 -0.002669426 -0.008794715 0.0015376569 0.0027901242 0.0026811059 -0.0007384122 0.004235295 0.009311888 0.0026448085 0.0062601864 0.0003448349 0.004191858 0.008874332 -0.0030898966 0.00067457167
5 -0.004764308 -0.005270411 -0.0062149614 0.009085298 0.008902474 0.00095786084 -0.0037096813 -0.004222103 0.0038286007 -0.010327497 -0.0075838375 -0.008157502 0.00075627543 -0.0071960185 -0.008914513 -0.007155542 0.0067018634 0.0066398005 -0.0071790265 0.008505769 0.00067331525 0.0018001985 0.0030690953 -0.0010701672 0.0049750926 0.0063615027 -0.008263975 -0.0065305526 -0.0018590259 -0.005310724 0.008496903 0.004515809 -0.005990309 -0.0007485712 0.0046548108 0.005655638 -0.008896099 -0.0086044045 0.003685944 0.006710397 -0.004081384 -0.002463879 0.0076678563 -0.005089746 -0.0046526454 0.0059324577 0.00016610019 -0.007100826 0.0057828743 -0.009313154
7 -0.009123998 -0.00074007525 0.0015765936 -0.0088491775 0.00887316 0.0050040465 -0.0006198813 0.00051651057 0.009733281 0.0015152022 -0.0041976497 -0.0065065385 -0.00036566786 0.004337627 -0.0052263653 -0.00950573 0.0075044422 0.004001934 0.0059559015 -0.008871699 0.0049098874 0.005982832 -0.003943343 -0.0015295577 0.0043641618 0.0005971336 -0.009670447 0.0076351073 0.008456398 0.009214904 0.0032758454 0.004740027 -0.00016251187 0.009023758 -0.0015398551 0.0012718429 0.0006433464 -0.007050508 -0.0065116333 -0.005019635 0.0018402068 0.0013604368 -0.007827686 -0.0052085547 0.002218645 0.0048209815 0.006010784 0.007559226 -0.0017565805 0.00021442659
4 -0.0041834074 0.00082093844 0.0047370265 -0.0028391485 0.0057992344 0.008383397 -0.00091154507 -0.008267655 -0.005766767 2.5827441e-05 0.007943159 0.008920599 0.007746745 0.008448328 -0.0004945804 -0.007568821 -0.009374554 -0.0019282623 0.005496317 0.00093030155 -0.0075327405 0.0031038653 -0.0047416016 -0.0044126417 4.1898515e-05 0.009396147 0.005481795 -0.00814569 -0.0040348084 -0.00010381557 0.0045605246 0.0031374728 -0.009239421 -0.00026636437 0.0036617757 -0.00021149055 0.007783436 -0.00944678 0.009622707 -0.0022596952 0.00047857122 0.0038845418 0.008801703 -0.007384529 0.0013695989 -0.005321009 0.0002579567 0.00050458853 -0.009016569 -0.00886399
2 -0.007162769 -0.00710072 0.0032599727 0.008976974 -0.009699458 -0.004673881 0.009584985 -0.0069965506 -0.0018633396 -0.0032842704 0.00439737 -0.00092648645 -0.0027907302 0.005350085 -0.0059420504 0.0010800902 -0.010133605 0.00044218177 -0.0013673138 -0.0015101156 -0.0014275359 0.0022343656 -1.5042917e-05 9.566542e-05 -0.005210258 0.0049198493 0.0033665518 0.00015951213 0.007159385 0.005873371 -0.006958214 -0.008664706 -0.006715997 -0.0094867665 0.0073540565 -0.007101401 -0.009719126 -0.0006649926 0.0042558834 -0.0012599657 0.0011695917 0.009352427 0.000114933224 -0.0024597575 0.00799175 -0.0065184995 -0.0069634025 0.009970276 0.0038062742 0.0006738076
3 0.0025465726 -0.006627531 -0.009008747 0.0017188601 -0.008931317 0.005598152 0.0055666952 -0.006083192 -0.0048402245 0.007414273 -0.0013063776 -0.006577897 -0.0018371795 -0.0068728873 0.0010448378 0.0053292518 -0.006198939 0.008283003 -0.005210537 0.005876717 0.0011925906 0.010047082 -0.0022474546 -0.0041760453 -0.0078095132 0.005791832 0.00914828 0.0031609994 0.0036808425 -0.0014601069 0.0072959196 0.009713586 0.0005841357 -0.0012180823 -0.007296151 -0.00463804 0.0030642734 0.0034458793 0.00400036 6.693313e-05 0.0057089212 -0.007546238 0.0043073236 0.0077284365 0.0057545514 0.00051470386 0.009746959 0.0020268364 -0.004272489 -0.0069582006
0 -0.009063566 -0.00596519 -0.004199484 0.005562369 -0.0005465907 -0.007340484 -0.006602272 0.0025269734 -0.0013400485 -0.00828569 -0.008009602 0.0027559851 -0.00833267 0.0036568993 -0.008049098 -0.007781403 -0.002753608 0.008530788 -0.0029207128 -0.004484972 -0.0016927513 -0.008735997 0.0016452731 -0.0016958469 0.0050955275 -0.0024121525 -0.0056793024 0.0040542786 -0.0075303204 -0.0019887015 -0.0025146005 -0.009117431 0.005856281 0.003586791 -0.0059144045 0.0039135977 -0.0018838708 -0.0004064666 -0.0033185664 -0.0062629385 0.00070524745 0.009901038 -0.0075262045 -0.008568058 -0.00077524537 0.0056217005 0.00010272054 0.009098713 -0.0014364985 0.0020675175
6 -0.0021362333 -0.007974099 -0.0021649906 -0.00077630446 -0.00876325 0.008823801 -0.004419496 0.008335996 -0.0028463947 -0.0010140105 0.006088307 -0.0058441884 0.008296377 0.004677944 0.0025510618 0.0021790804 0.00812215 -0.00035892957 -0.009136232 -0.00996836 0.006366052 -0.005721837 0.0064622043 0.0075963936 -0.004695873 0.003382296 0.0036161703 0.009526091 0.008309362 -0.0017457603 -0.006626581 -0.0074438225 -0.0066466923 -0.0025121903 0.0028375052 0.0037097821 -0.0084649315 0.003444396 -0.008876223 0.009540086 -0.005569918 -0.0053807213 0.0033385886 -0.007579456 0.009529258 -0.007286732 -0.002371497 -0.0055265063 -0.0027859437 0.0062832707
